# 27GHz 39GHz 93GHz 145GHz 225GHz 280GHz
-0.004488875659054832 0.00013014575643958677 0.6497123549482805 0.46362263981829804 -0.049209832542869134 -0.059766432321094055 
-0.0037862800272669165 -0.0004928563057061948 0.6426419771493486 0.4727634116120419 -0.05071706068592796 -0.06040919174248947 
-0.0036644397771394065 -0.0007102859387103632 0.6271113105062518 0.49014157952167847 -0.05293481762830383 -0.059943346683776426 
-0.0027873826835053844 -0.002099831685084419 0.6415132153521712 0.4716031257947164 -0.04710099130789978 -0.06112813547039807 
-0.004186125187723721 -0.0012997385287077713 0.6418717011566518 0.4738432652554856 -0.04851798047994308 -0.061711122215762755 
-0.003458288225785656 -0.0026923296645165735 0.6474502187327003 0.46430060295804876 -0.04416341450263687 -0.061436789297809866 
-0.004377383945740701 -0.001285910574000763 0.6391043357829177 0.4792661416214043 -0.051825662550099044 -0.06088152033448137 
-0.003694772794042167 -0.0006935418510235507 0.6308336979684513 0.483133389417377 -0.04667624299475829 -0.0629025297460044 
-0.0034889203932209935 -0.0019421721980218052 0.6321977320840865 0.48785529637314745 -0.05486581194528291 -0.059756123920708205 
-0.003658130817559165 -0.0012629101306022433 0.6497726833839643 0.4643590253917353 -0.048962686367119014 -0.06024798146041919 
-0.004256600089294459 0.000537906023860297 0.6451350038729624 0.46882579755207593 -0.05232171268242491 -0.05792039467717954 
-0.004118342667799654 0.0008625692274476826 0.6326423479971269 0.47935042722374316 -0.04625510994149714 -0.06248189183902107 
-0.0039135228286311515 -0.0014054383485349775 0.6537076812934495 0.4629440983829968 -0.05287259059394746 -0.05846022790533252 
-0.0038825799906868123 -0.000638101558614568 0.6402692044418942 0.4799729982484934 -0.05762916881777217 -0.058092352323314084 
-0.004196802027868635 -0.0003905817975968748 0.6524994267900935 0.4583391775074613 -0.04657860952258054 -0.059672610949508764 
-0.00445993076688236 0.0018384115606164975 0.633145858747047 0.48127287983720346 -0.0508334133541602 -0.060963806023824466 
-0.003997166161704364 -0.003139123342524921 0.6442475998610602 0.4722387082394653 -0.04891433201862999 -0.06043568657766621 
-0.004266110024858942 -0.00041686066126448676 0.638742734062414 0.48200811191894294 -0.0580136644813736 -0.058054210813859974 
-0.003732030341411719 0.00039370731964337815 0.6363778296943451 0.47373911041131883 -0.04440329547911343 -0.06237532160478197 
-0.003098797962125908 -0.003543114890580575 0.6415550701885474 0.4763054825088878 -0.05004229413181033 -0.06117634571291836 
-0.0028919003295926455 -0.0016508007110427583 0.6323795599522298 0.47772031931988057 -0.04406662061021868 -0.0614905576212563 
-0.004140550098853662 -0.0003688045276812153 0.6515629177090227 0.46392245762629464 -0.05341926339275737 -0.05755675731602516 
-0.004597616799411409 0.0010783625178427865 0.6339660342543243 0.4813953562994862 -0.05128567623674508 -0.0605564600354967 
-0.004180328452127422 0.00037523879183717836 0.6403598532208038 0.4758973194496755 -0.053770483514335596 -0.05868159949585356 
-0.003241520337982696 -0.0024535457228310486 0.6084154088461758 0.50414639179425 -0.04080411050336066 -0.0660626240762514 
-0.004010742819983485 -8.820405074327433e-05 0.655867320736945 0.4569200971053356 -0.048934781902658125 -0.05975368906889565 
-0.004562126798451789 -7.414704797193702e-05 0.6363040830335415 0.47460877247733807 -0.04424101804649032 -0.06203556361796551 
-0.0034802218187711758 -0.002968257918487448 0.6396367369726996 0.4791669066295177 -0.05188912826119859 -0.06046603560376021 
-0.0028969870382481175 -0.002826283679105662 0.6390706858806681 0.4784856649758003 -0.05276843214820467 -0.05906464799091003 
-0.00345714562506421 -0.0016650607311093496 0.6314871143690761 0.49027289445387967 -0.05849875714957294 -0.05813904531720934 
-0.003555207762193475 -0.002338438263272021 0.6561383163143837 0.45646576609311895 -0.04552583484629112 -0.06118460153574605 
-0.0030123545047094752 -0.0009442417367297408 0.6398476802412597 0.4705960483261303 -0.04539163759941864 -0.06109549472653208 
-0.004083382105520352 -0.0006507258236075864 0.6380667634300543 0.48097305030751464 -0.055548928150060885 -0.05875677765837996 
-0.0030280782669228575 -0.004209100115537077 0.6419009993193528 0.4733052438038956 -0.04793278322482629 -0.0600362815159623 
-0.0037429185324701943 -0.0012872871908590558 0.6323606676229313 0.48297149500587155 -0.048214792512274854 -0.06208716439319875 
-0.0034358005863737644 -0.00044856071022426506 0.6307584058846395 0.4920894663390509 -0.06073392754250714 -0.05822958338458507 
-0.003054501935484923 -0.002303643828186464 0.6468529504573916 0.469532541343126 -0.050330039689877065 -0.060697306346969085 
-0.003729336150502582 0.0006206949621698539 0.6363487931246512 0.4715029751364489 -0.04300886917051433 -0.06173425790225311 
-0.0036535585261544246 -0.0027059986909133537 0.6339329905717719 0.47771383609894424 -0.04138543184773527 -0.063901837605913 
-0.004363715274709183 -0.0005642786964638476 0.6377254709971093 0.4727666388869751 -0.04302744079805514 -0.06253667511485617 
-0.0037220530290721504 0.0009600685540819228 0.6132544863266923 0.49728349203718225 -0.04460252003438203 -0.06317347385450235 
-0.0038087495479558384 -0.0005105140236885718 0.6570473111311323 0.46255209845538103 -0.05964610913586724 -0.05563403687900189 
-0.004918884311067584 0.0033786051054406872 0.6390361881458226 0.4744983819772151 -0.052651070245994885 -0.05934322067141611 
-0.004324145721344357 -0.0007729702360733873 0.6581076446101216 0.4598929868810477 -0.0550147338634491 -0.0578887816703025 
-0.004162215839227401 0.0005845308114700793 0.6406107188702372 0.46780204590636826 -0.04294074378031346 -0.06189433596853495 
-0.0031040658811341566 -0.0008059057956372547 0.6316041738050574 0.47683118025313675 -0.03960082821502689 -0.06492455416639589 
-0.0028351049843746727 -0.0015695131209928453 0.6678441358033493 0.4474318035917734 -0.05258874318816197 -0.05828257810159322 
-0.003928477735312619 0.0021703098161325813 0.6295337820480815 0.4815814703103133 -0.04785503344748919 -0.061502050991725635 
-0.004176335426083747 -0.0010345058930295897 0.6581135255774373 0.4591148879076479 -0.054998747565974664 -0.057018824599997395 
-0.004351331521071718 0.0008859717263008779 0.6457968699636673 0.4723113838640558 -0.057250345799350365 -0.05739254823360193 
-0.0032050739118913182 -0.0012655322409029532 0.6350500574858177 0.4855172212283244 -0.05666349018318369 -0.05943318237816414 
-0.004524605517850601 -0.0015919467448894428 0.6327366503850939 0.4826977518150384 -0.04990845652446972 -0.05940939341292229 
-0.0036186535666374313 -0.0007593916725107808 0.6329447673852131 0.4863513687820771 -0.05433747003442765 -0.06058062089371421 
-0.0038796910359940344 -0.0028530749451918663 0.6419847332050659 0.4706002488626599 -0.04323705263766621 -0.06261516344887366 
-0.004209223896597845 0.0007147134842006681 0.6256278926440388 0.48844047887318826 -0.049644596983813294 -0.06092926412101668 
-0.003681714808083254 -0.0011931187817116637 0.6447626695811713 0.47222064284544907 -0.0527034506095066 -0.05940502822731883 
-0.0034611516704263737 -0.0031904090864036355 0.6381498819353497 0.478160331617255 -0.049747550533927 -0.05991110226184789 
-0.0040180175116420235 0.00022287487990179245 0.6563728207077252 0.4591204302951161 -0.05288740076173433 -0.0588107076093669 
-0.00367117850755064 -0.0008188581433603229 0.6574520439840968 0.45809608736626156 -0.052984007905604806 -0.058074086793842815 
-0.0029964950498150744 -0.0032183013267582435 0.6523593031662542 0.46346790777924235 -0.04761084238397756 -0.062001572184945834 
-0.003975015135972935 -0.0005911292131017346 0.6296242370501175 0.48610248455538674 -0.05020201254787101 -0.060958564708558545 
-0.004482785073627373 -0.00021930765168691517 0.6427410881595758 0.4775144384296482 -0.05717430852857294 -0.0583791253353368 
-0.0033199772109119125 -0.0021590276909119366 0.6403733672175017 0.47742662631189503 -0.053600812767899415 -0.05872017585967354 
-0.0037896956366098057 -0.0016027748164980174 0.6443042029424625 0.4730929072502666 -0.05327315080626064 -0.05873148893336055 
-0.0033888993873377854 -0.0005441179473382125 0.6311040743236915 0.4825055109137142 -0.046928824994547196 -0.06274774290818261 
-0.0035226708365301927 -0.001998030311009178 0.6384787455667343 0.47317173233499127 -0.04411868282561234 -0.06201109392857398 
-0.0034054842942522344 -0.0012088657534657947 0.6424861887446979 0.4717253399613239 -0.05080073495260348 -0.05879644370570011 
-0.00467042648134438 0.00011412811439506043 0.6397149563165966 0.4725437178293773 -0.045973545753028824 -0.0617288300259955 
-0.004135672227916488 -0.0003043782911985998 0.637395932106668 0.4787382124443766 -0.05103083041428794 -0.060663263617641676 
-0.00384943212250654 0.00020625085070401195 0.6252511697325133 0.48936220304929623 -0.04940743407395875 -0.061562757436047985 
-0.0037062351366871776 -0.0017231411162976825 0.6439960750532483 0.46922307729766777 -0.04536584418070051 -0.062423931917230675 
-0.003374079239982639 -0.0005952774956725868 0.6329676628678707 0.4797894385437395 -0.048159433681357014 -0.06062831099459821 
-0.004127988730554756 0.0006217488852045572 0.6390503397819925 0.4708545707010887 -0.04420997455399158 -0.06218869608373936 
-0.0033415457986835486 -0.0021056973721273013 0.6354303204800289 0.47425302014428333 -0.03952119725645293 -0.06471490019704845 
-0.00468775872288662 -0.0007001480747846221 0.6462948731074927 0.46809849149635263 -0.048238247886258266 -0.060767209919915854 
-0.004220113977623366 0.0017521256271320713 0.634220713871135 0.48222302754099866 -0.05547096724162808 -0.0585047858200144 
-0.003889089577140693 -0.0017105244014262516 0.6448227721444042 0.46635473776150094 -0.04354073764584104 -0.062037158281497036 
-0.003992755338723717 -0.0010568438552254224 0.634172305784434 0.48123582059924036 -0.049833638389146714 -0.06052488880057832 
-0.003318311578409516 -0.0024776879472095973 0.6541008081583617 0.4630268900680836 -0.05242537128430298 -0.058906327416523144 
-0.00319972248837282 -0.0021624370241779 0.6376689841495298 0.4762238375781215 -0.048078300036947005 -0.06045236217815347 
-0.0036276021790934416 -0.002098028612346759 0.6601504977158323 0.45620867326449654 -0.05359039255615734 -0.05704314763273149 
-0.003918191476497085 -0.0012564328456609476 0.6474558238634389 0.4648220678359499 -0.04607338682714564 -0.06102988055008511 
-0.003392937152171191 -0.0012221094104202493 0.6403181070868574 0.47584838914067623 -0.05105429806166913 -0.06049715160327291 
-0.004104899622808639 0.0010255591376383544 0.6392948469228678 0.4720507713980593 -0.048274241648676615 -0.05999203618708022 
-0.0029081859960145874 0.0005358723724097874 0.6309771050984013 0.47794933527300854 -0.04325512389350413 -0.06329900285430094 
-0.004212864485654629 -0.0019999452094959323 0.6535475671457205 0.46245252089895494 -0.0509981374760017 -0.0587891408735231 
-0.0031513290677647305 -0.0003501398468348895 0.6418116491911614 0.47241138024744017 -0.05085620588500528 -0.059865354638996573 
-0.0036962567901216038 -0.0017727503003074296 0.6473343342742213 0.4748546531053286 -0.059419594905251186 -0.057300385383869584 
-0.004667832414049859 0.001820259748450445 0.6361077331369787 0.47613062322588007 -0.048400312369004474 -0.060990471328254824 
-0.003869432367682229 0.0009776891302474703 0.6360182963140404 0.47210559013965736 -0.044016979255395876 -0.061215163960867174 
-0.003939292295325624 6.709790700237587e-05 0.6448968058978978 0.46808791258274274 -0.048791931134914986 -0.06032059295740259 
-0.00415853677533813 0.0009063321713236296 0.6532463302123527 0.45777354186294483 -0.047691194711366174 -0.06007647275991678 
-0.003970822610014359 0.0002583728986029816 0.6375934875349171 0.48044998012688417 -0.05586017591752871 -0.05847084203286087 
-0.004027690000574123 -0.002183878948382147 0.621592460262835 0.49869348262385466 -0.05275067601529404 -0.06132369792243931 
-0.00362387355675548 -0.0005990747671128294 0.6354497421016332 0.4764549152696095 -0.04475684704926794 -0.06292486199810664 
-0.00388790474239768 -0.0010348046585108158 0.6460177058457892 0.470585189542878 -0.05327996542653796 -0.05840022056122064 
-0.004634002002049014 -0.00022361339147656278 0.6494568065674834 0.465314988809909 -0.05073216653418785 -0.059182013449678966 
-0.0036626380755500265 -0.0015030946133158434 0.6170624168931833 0.49862417425607647 -0.04873233712040112 -0.061788521339992866 
-0.003700391021211888 0.0005553490624328485 0.6332773370821511 0.4785681434437238 -0.04996475514327661 -0.05873568342381922 
-0.003357897030329144 -0.002102186759273062 0.6397451921753697 0.47351386092180164 -0.04660223985832676 -0.06119672944924229 
