# 27GHz 39GHz 93GHz 145GHz 225GHz 280GHz
-0.004293689754183318 0.0020643329568019934 0.6892836860196141 0.41979373043650137 -0.0611103994923893 -0.045737660166344944 
-0.003692004843883916 0.0015237241664334408 0.6819932523727565 0.4302251297741829 -0.06364531092368182 -0.046404790545807095 
-0.0034785915073129755 0.0011466828100882304 0.6680571842769342 0.442114749858876 -0.06076845030931369 -0.047071575129271785 
-0.0026176448250882804 -0.0009986314590984657 0.680554815652645 0.42871255373568856 -0.057807219569174624 -0.04784387353497212 
-0.0034326637055219883 -0.0004672395552775161 0.6878092521862422 0.4237222807832015 -0.06033374785623556 -0.04729788185240866 
-0.003388345907012297 -0.0009916886669441782 0.6866462427716564 0.42164828452162545 -0.057467449990235855 -0.04644704272908937 
-0.0042234025052038555 0.0006498711706189989 0.6837641918237615 0.4275196883530274 -0.06000408638298361 -0.047706262459220244 
-0.0034115378425982924 0.0011132905832416118 0.6709946493437315 0.43754199924676473 -0.05635267276148394 -0.049885728569655556 
-0.003249823802434024 -0.0005509174578685097 0.675545286476811 0.4363384061571622 -0.060597916512252624 -0.04748503486141798 
-0.002909873083956394 -0.00029866273994085375 0.6903706004313321 0.415522980191176 -0.053732729503795484 -0.04895231529481566 
-0.004035501666941444 0.002729196523960447 0.6806685973607606 0.4267956654603339 -0.06094781622650053 -0.04521014145161292 
-0.003909219768083817 0.0014943495449895676 0.6798772872576065 0.42787901291959957 -0.05676392806392006 -0.04857750189019175 
-0.003796453883742688 6.421591607006781e-06 0.6912005904086391 0.42139626077215864 -0.06371383473139502 -0.04509298415726701 
-0.003618275300507836 0.0010970775054868207 0.6819563111279761 0.4319065833198028 -0.06594281057989719 -0.04539888607286064 
-0.0039058820874784896 0.0004451957423516847 0.6857801489824945 0.4208329729122056 -0.055829206961465455 -0.04732322858810792 
-0.004348837390827949 0.002695260663629709 0.682155050888202 0.42831130761761854 -0.06249423965519982 -0.04631854212342252 
-0.003836811342742676 -0.0012520533328719203 0.6880568855089506 0.42314442336715574 -0.06001151178069791 -0.04610093241979394 
-0.004314671831479632 0.0014518718831098513 0.6774343629900855 0.4376438908296777 -0.06722538701140927 -0.04499006685998393 
-0.0035191002601852265 0.0026404854099788275 0.6807189507209743 0.4237544754944551 -0.05556166697460373 -0.04803314439061923 
-0.0033480972342129645 -0.0011735177769716465 0.6800405318105639 0.43406491294331184 -0.06280442559298761 -0.04677940414970343 
-0.0029473015036369735 0.0007282623917101958 0.6765420403723184 0.42914865932212054 -0.05717392206133223 -0.04629773852117967 
-0.003572321799356023 0.0009644936601652628 0.6895766818711927 0.42059811663358415 -0.06325103180573997 -0.04431593855984622 
-0.004115856691733595 0.002317375589232059 0.6792616144377254 0.4301899876351446 -0.0605542591225646 -0.04709886184780382 
-0.004064486365445645 0.002081750876208233 0.6897872218507879 0.41880724107738065 -0.061081332149094204 -0.045530395289836836 
-0.0027680512689838934 -0.0022273657103079004 0.6575069301448339 0.4501387625342662 -0.050152905574699015 -0.05249737012510921 
-0.003467564037852795 0.0010237043102195944 0.6949566711560238 0.4128641451137841 -0.05899211898919459 -0.046384837552980146 
-0.004448329870071659 0.00216713341251098 0.6837855782109172 0.42175897819785696 -0.056188077066139916 -0.04707528288507364 
-0.0028972519987720937 -0.0009808608898745688 0.6822290811891677 0.428989278340348 -0.06019863454052873 -0.04714161210034038 
-0.002640924250223115 -0.0008969896306166826 0.6794399633364462 0.4314064296687088 -0.0611221933159065 -0.04618628580840846 
-0.003186495447321189 -0.00013248342634961682 0.6780354382935128 0.43701727213195446 -0.06698042833177757 -0.04475330322001881 
-0.003288656240314566 -0.00045891589244651676 0.6919489033422961 0.4157580055640196 -0.05607554733672465 -0.047883789436830075 
-0.002888299981906067 0.001723832164927334 0.680290459337134 0.4235781284143872 -0.0549509672641216 -0.047753152670420816 
-0.003916845001283 9.350829247625221e-05 0.6781220840248486 0.43325365489500467 -0.059952692714188134 -0.04759970949685848 
-0.0028948204701001574 -0.0017035244143310615 0.6771707139104821 0.43420786375876363 -0.06117057260861324 -0.0456096601762013 
-0.003982900428696486 0.0015260748670289164 0.6789721783744795 0.43097936793159614 -0.059765682087245475 -0.04772903865716263 
-0.0025007235073716437 0.0006545661105028306 0.6681532637691293 0.4476914929415022 -0.06818898914486693 -0.04580961016889576 
-0.003065487249503864 0.00023514678107561092 0.6897717685392953 0.4200691463058955 -0.05958207179268675 -0.047428502584075924 
-0.00328630296044628 0.0013265843157028317 0.6746691664059691 0.4303959607029276 -0.05529914180662781 -0.047806266657525576 
-0.0035924211173442235 -0.0003001573452231038 0.6735974037648129 0.43307580913399274 -0.05266912896146622 -0.05011150547477216 
-0.004048381765321137 0.00045340103685482977 0.6818128507785042 0.424262319299304 -0.05409779860538347 -0.048382390743958725 
-0.003301897064160414 0.002024433590062839 0.6565738404860336 0.45125958874169914 -0.05814632893654058 -0.04840963681709475 
-0.0033358991322998163 0.0007626144933567037 0.69220490653883 0.42025863662637336 -0.06549967716365003 -0.04439058136261012 
-0.004632526638675311 0.00498389518772256 0.6801845536586262 0.4244875981741451 -0.05734901831638584 -0.047674502065432646 
-0.004093558671717355 0.000626006058144539 0.6898849254359262 0.4243524259168788 -0.06556707525355089 -0.04520272348568114 
-0.0041737075400299865 0.002664391090691458 0.6786895033256622 0.42327967756850526 -0.051207956417235176 -0.049251908027594084 
-0.002862317170612141 0.0004643309518984797 0.6784725767294042 0.42661514661904143 -0.05298893153551652 -0.04970080559421533 
-0.0022709124508067968 0.00022532889891329296 0.7011441677063606 0.4065420153846749 -0.058785864316997276 -0.04685473522214455 
-0.0033386790589812875 0.0034997684177700324 0.6710068682892947 0.43543675677491256 -0.05895939810534339 -0.047645316317652585 
-0.003786250075627757 -0.00031248826484150266 0.6971601817333419 0.4129338371926338 -0.060453027910447654 -0.045542252675058854 
-0.003873820693972047 0.002513754931809404 0.6793387045761329 0.43406163450043317 -0.06758779687247463 -0.04445247644192879 
-0.0032426279692551268 0.000772510414758774 0.6789820087679482 0.4359514256550902 -0.06710292919204797 -0.04536038767649417 
-0.00411873388594332 -0.0009183216169215145 0.6795275940069521 0.4325303696659082 -0.062001833518921474 -0.04501907465107382 
-0.0037809949354439243 0.0021182511012574835 0.6765902241427961 0.43745829144033826 -0.06620084804892078 -0.046184923700027254 
-0.0039674266528243966 -6.521477198289303e-05 0.6816049796981182 0.42502762179057596 -0.053401772754742484 -0.04919818730914418 
-0.004169485935570826 0.0028994137682801465 0.6708998078218813 0.4360953592746512 -0.05813040031787309 -0.04759469461136888 
-0.0035434700831941768 -0.00047770016368033384 0.6847096207031761 0.4271873452154891 -0.06095336372926899 -0.046922431942521714 
-0.003365257837275502 -0.0015184286481809528 0.6805054865140407 0.42814634207867486 -0.05620335948066092 -0.04756478262659846 
-0.0038880829115988317 0.0008509267891298888 0.6980050189220555 0.41228933409796475 -0.06081197901137631 -0.046445217886174936 
-0.0036102955212314637 0.0007422108146046746 0.6982942517685318 0.4101503834079051 -0.06012139740809607 -0.045455153061713965 
-0.002796236395414746 -0.0018914557500143922 0.6970051266338803 0.4127669325085531 -0.05608383488631651 -0.049000532110687764 
-0.00368648257853296 -0.0001798630058730396 0.6791021757344081 0.4314237800171608 -0.059689021060274725 -0.04697058910688809 
-0.004179766719429561 0.0013336650893573645 0.6764069808251513 0.4373148856258507 -0.06396950650104015 -0.04690625831988943 
-0.0029220500355403196 0.0005376269327197021 0.6789536598208704 0.43281199928679726 -0.0639444930949917 -0.04543674290985552 
-0.0035067869514599 0.00036270428026612876 0.6844262264246774 0.4267769903513147 -0.0629803178256472 -0.04507881627915133 
-0.003279677511608333 0.0008792781488425436 0.6724241936319322 0.4364832714363692 -0.05771507873299865 -0.048791986972536845 
-0.003455933590998662 -0.0014155315516214465 0.6874126545857271 0.4212293544753778 -0.056882597489528834 -0.04688794642895586 
-0.003254866893194343 0.00043295866788414756 0.6772067924191966 0.4290743785224662 -0.05629762611835339 -0.04716163659799926 
-0.004196613376274078 0.0011729355299620683 0.681389239442528 0.423562335143948 -0.052390090146824546 -0.049537806593339444 
-0.004101582485566386 0.0015907798586847549 0.6862959728828163 0.423591276683441 -0.06045854189107218 -0.0469179050483032 
-0.00400907310027834 0.0023019664838305437 0.6710546444386759 0.43898865342887455 -0.061447097577874005 -0.046889093673228466 
-0.0036874987410507017 3.206873459179145e-05 0.6854969702544651 0.42292996086022977 -0.05598734598145408 -0.04878415512678181 
-0.0030189475512415066 0.0019429882419905768 0.6690661899082941 0.4376353607518767 -0.05837831781063137 -0.04724727354028869 
-0.0037352374791957796 0.0016247570113394527 0.6796400076978181 0.426495568688043 -0.05576629665019923 -0.048258799267805574 
-0.003357438319529627 2.2875401884000756e-05 0.6815057190968615 0.42636056038528497 -0.055832056846935624 -0.04869965971756515 
-0.004458811602607412 0.0002851550542598109 0.6863579246001495 0.423340840362001 -0.05785667103697455 -0.04766843737682855 
-0.004153729961122767 0.0035437556101692164 0.6760306885211302 0.4351392851952773 -0.0658812590288021 -0.04467874033665184 
-0.0037885580558610714 -0.0002631133150531678 0.6835976967420743 0.42529709111938746 -0.05732124511480593 -0.04752187137574163 
-0.0034542086497881402 0.00028059309947539243 0.6772510858513441 0.4318792665790156 -0.05873731963504492 -0.047219417245001796 
-0.0033618374242191692 0.0005471779670509764 0.6894072345552177 0.42332305908027706 -0.0649370619339207 -0.044978572244405865 
-0.003121468191306393 0.0002782646322181461 0.678942481695671 0.427765840493318 -0.056583979044228565 -0.047281139585671844 
-0.0037815490455177323 4.762570308196606e-05 0.7014613953222806 0.40654000157910736 -0.05894195115710187 -0.045325522401850414 
-0.004140274701564593 0.0007272261368784159 0.6989002129272592 0.4078055145843115 -0.05669522888413292 -0.04659745006275175 
-0.0030102071598533055 -0.0001039574749067249 0.6838008849445943 0.42672632733954735 -0.06013291980560737 -0.04728012784377423 
-0.0034988456805044857 0.0018959402491502092 0.683180414465089 0.4235378123492021 -0.05884599270162913 -0.046269328681307745 
-0.0031089404036408206 0.002225514877718216 0.681392933714326 0.42266624347920223 -0.054608949052348574 -0.04856680261525724 
-0.004078785126635444 0.0001962343290770241 0.6856180062268225 0.4265995141322158 -0.06293195261834528 -0.04540301694313448 
-0.0028271591764458368 0.0018848762589616028 0.6778689431137502 0.42972078360317273 -0.05951914318322031 -0.04712830061621846 
-0.0036321824847417128 0.0006137884073904395 0.6867539904675947 0.42627668745058706 -0.06457968556701832 -0.045432598273812276 
-0.0047728808066133735 0.003471396794180742 0.681482863496973 0.4267983283126568 -0.06084253377183635 -0.04613717402536096 
-0.0033908682280807396 0.0025583256501392807 0.6732327483026924 0.43056881712944245 -0.05542358633425476 -0.04754543651993873 
-0.003273084205087084 0.0010021048583270925 0.6830348612459856 0.42463398667856717 -0.057848569358828414 -0.047549299218964385 
-0.004241659312159255 0.0031206807139866955 0.6868436692928532 0.41931907304772637 -0.057427535156907586 -0.0476142285854995 
-0.0038780980845896144 0.0021441072029934403 0.6819636516103574 0.4277598946344454 -0.0623155918556856 -0.04567396350752115 
-0.0038715798672969474 -0.0008802871361778264 0.6651244017219857 0.44836727878416843 -0.06055652099269825 -0.04818329250998089 
-0.0033639338080990624 0.0014203779410052004 0.6811581676475723 0.4271965437645282 -0.05902341166664318 -0.0473877438783635 
-0.003880655140378519 0.0016026945182278335 0.6810641633304859 0.42940103686134057 -0.06249351283539518 -0.04569372673428078 
-0.00448132831201545 0.0011827592242321077 0.6872355375204399 0.42296142950138105 -0.06089305353881445 -0.04600534439522304 
-0.0036433397700077674 0.0007284161402672824 0.6640427379964676 0.44440266187461963 -0.057010981845027155 -0.048519494396319716 
-0.0031013241110892176 0.0015885121895492173 0.6715056811129273 0.4333698723231279 -0.05691947490219152 -0.04644326661232377 
-0.003308417239046838 0.00023522027717250772 0.6768697505581716 0.4312336125509369 -0.05745265001480123 -0.04757751613243328 
